digraph Tree {
node [shape=box, style="filled", color="black"] ;
0 [label="ABDOMEN <= 89.4\nmse = 71.486\nsamples = 102\nvalue = 18.676", fillcolor="#f3c3a0"] ;
1 [label="ABDOMEN <= 83.1\nmse = 24.997\nsamples = 44\nvalue = 11.945", fillcolor="#f9e1d0"] ;
0 -> 1 [labeldistance=2.5, labelangle=45, headlabel="True"] ;
2 [label="HEIGHT <= 68.5\nmse = 22.789\nsamples = 19\nvalue = 8.768", fillcolor="#fcefe7"] ;
1 -> 2 ;
3 [label="mse = 28.8\nsamples = 7\nvalue = 5.34", fillcolor="#ffffff"] ;
2 -> 3 ;
4 [label="mse = 13.349\nsamples = 12\nvalue = 10.196", fillcolor="#fae9dc"] ;
2 -> 4 ;
5 [label="WRIST <= 18.1\nmse = 14.667\nsamples = 25\nvalue = 14.149", fillcolor="#f7d7c0"] ;
1 -> 5 ;
6 [label="HIP <= 95.85\nmse = 13.133\nsamples = 19\nvalue = 15.106", fillcolor="#f6d3b9"] ;
5 -> 6 ;
7 [label="mse = 4.696\nsamples = 11\nvalue = 13.005", fillcolor="#f8dcc8"] ;
6 -> 7 ;
8 [label="mse = 10.651\nsamples = 8\nvalue = 17.907", fillcolor="#f3c6a5"] ;
6 -> 8 ;
9 [label="mse = 10.495\nsamples = 6\nvalue = 11.757", fillcolor="#f9e2d1"] ;
5 -> 9 ;
10 [label="CHEST <= 110.45\nmse = 36.442\nsamples = 58\nvalue = 24.684", fillcolor="#eda775"] ;
0 -> 10 [labeldistance=2.5, labelangle=-45, headlabel="False"] ;
11 [label="ABDOMEN <= 93.7\nmse = 20.286\nsamples = 45\nvalue = 22.927", fillcolor="#efaf82"] ;
10 -> 11 ;
12 [label="FOREARM <= 27.95\nmse = 10.329\nsamples = 17\nvalue = 20.252", fillcolor="#f1bb95"] ;
11 -> 12 ;
13 [label="mse = 8.146\nsamples = 8\nvalue = 22.836", fillcolor="#efb082"] ;
12 -> 13 ;
14 [label="mse = 4.081\nsamples = 9\nvalue = 18.475", fillcolor="#f3c3a1"] ;
12 -> 14 ;
15 [label="HEIGHT <= 71.375\nmse = 19.71\nsamples = 28\nvalue = 24.372", fillcolor="#eda977"] ;
11 -> 15 ;
16 [label="mse = 14.835\nsamples = 16\nvalue = 26.356", fillcolor="#eba069"] ;
15 -> 16 ;
17 [label="mse = 8.932\nsamples = 12\nvalue = 20.844", fillcolor="#f0b991"] ;
15 -> 17 ;
18 [label="mse = 27.882\nsamples = 13\nvalue = 33.137", fillcolor="#e58139"] ;
10 -> 18 ;
}