digraph Tree {
node [shape=box, style="filled", color="black"] ;
0 [label="WATER <= 178.65\nmse = 312.104\nsamples = 271\nvalue = 36.606", fillcolor="#f1bd98"] ;
1 [label="CEMENT <= 270.65\nmse = 272.13\nsamples = 113\nvalue = 47.331", fillcolor="#ea995e"] ;
0 -> 1 [labeldistance=2.5, labelangle=45, headlabel="True"] ;
2 [label="mse = 123.432\nsamples = 48\nvalue = 35.985", fillcolor="#f2c09b"] ;
1 -> 2 ;
3 [label="mse = 236.264\nsamples = 65\nvalue = 54.264", fillcolor="#e58139"] ;
1 -> 3 ;
4 [label="AGE <= 21.0\nmse = 195.766\nsamples = 158\nvalue = 28.766", fillcolor="#f7d8c2"] ;
0 -> 4 [labeldistance=2.5, labelangle=-45, headlabel="False"] ;
5 [label="mse = 76.158\nsamples = 54\nvalue = 17.437", fillcolor="#ffffff"] ;
4 -> 5 ;
6 [label="mse = 158.446\nsamples = 104\nvalue = 34.502", fillcolor="#f3c5a3"] ;
4 -> 6 ;
}